<?xml version="1.0"?>
<opencv_storage>
<cascade>
  <stageType>BOOST</stageType>
  <featureType>HAAR</featureType>
  <height>32</height>
  <width>32</width>
  <stageParams>
    <boostType>GAB</boostType>
    <minHitRate>9.9500000476837158e-01</minHitRate>
    <maxFalseAlarm>5.0000000000000000e-01</maxFalseAlarm>
    <weightTrimRate>9.4999998807907104e-01</weightTrimRate>
    <maxDepth>1</maxDepth>
    <maxWeakCount>100</maxWeakCount></stageParams>
  <featureParams>
    <maxCatCount>0</maxCatCount>
    <featSize>1</featSize>
    <mode>BASIC</mode></featureParams>
  <stageNum>20</stageNum>
  <stages>
    <!-- stage 0 -->
    <_>
      <maxWeakCount>5</maxWeakCount>
      <stageThreshold>-2.0689158439636230e+00</stageThreshold>
      <weakClassifiers>
        <_>
          <internalNodes>
            0 -1 99 -6.4710206352174282e-03</internalNodes>
          <leafValues>
            -1.2048192322254181e-02 -9.3248945474624634e-01</leafValues></_>
        <_>
          <internalNodes>
            0 -1 7 -3.6276780068874359e-02</internalNodes>
          <leafValues>
            4.4818261265754700e-01 -7.5454074144363403e-01</leafValues></_>
        <_>
          <internalNodes>
            0 -1 105 5.2384836599230766e-03</internalNodes>
          <leafValues>
            -5.2929466962814331e-01 6.0098928213119507e-01</leafValues></_>
        <_>
          <internalNodes>
            0 -1 80 -1.1098035611212254e-03</internalNodes>
          <leafValues>
            8.2963132858276367e-01 -3.7974926829338074e-01</leafValues></_>
        <_>
          <internalNodes>
            0 -1 74 -5.1571745425462723e-03</internalNodes>
          <leafValues>
            7.4825131893157959e-01 -3.9328286051750183e-01</leafValues></_></weakClassifiers></_>
    <!-- stage 1 -->
    <_>
      <maxWeakCount>4</maxWeakCount>
      <stageThreshold>-1.2101616859436035e+00</stageThreshold>
      <weakClassifiers>
        <_>
          <internalNodes>
            0 -1 10 -2.0892683416604996e-02</internalNodes>
          <leafValues>
            4.5454546809196472e-01 -8.6024552583694458e-01</leafValues></_>
        <_>
          <internalNodes>
            0 -1 77 -1.0318940505385399e-02</internalNodes>
          <leafValues>
            3.9749106764793396e-01 -6.7402756214141846e-01</leafValues></_>
        <_>
          <internalNodes>
            0 -1 141 1.9826745847240090e-04</internalNodes>
          <leafValues>
            1.8861894309520721e-01 -8.1087845563888550e-01</leafValues></_>
        <_>
          <internalNodes>
            0 -1 128 1.0581788956187665e-04</internalNodes>
          <leafValues>
            1.4580242335796356e-01 -9.3602615594863892e-01</leafValues></_></weakClassifiers></_>
    <!-- stage 2 -->
    <_>
      <maxWeakCount>6</maxWeakCount>
      <stageThreshold>-1.8380652666091919e+00</stageThreshold>
      <weakClassifiers>
        <_>
          <internalNodes>
            0 -1 61 -5.9924777597188950e-03</internalNodes>
          <leafValues>
            1.8367347121238708e-01 -8.8976377248764038e-01</leafValues></_>
        <_>
          <internalNodes>
            0 -1 93 1.0131090879440308e-02</internalNodes>
          <leafValues>
            -6.8497073650360107e-01 1.8765443563461304e-01</leafValues></_>
        <_>
          <internalNodes>
            0 -1 28 -1.7199723515659571e-04</internalNodes>
          <leafValues>
            3.6494135856628418e-01 -5.1306498050689697e-01</leafValues></_>
        <_>
          <internalNodes>
            0 -1 57 -5.4261451587080956e-03</internalNodes>
          <leafValues>
            5.5244165658950806e-01 -3.8069859147071838e-01</leafValues></_>
        <_>
          <internalNodes>
            0 -1 104 -6.7861378192901611e-04</internalNodes>
          <leafValues>
            4.0296435356140137e-01 -4.9489542841911316e-01</leafValues></_>
        <_>
          <internalNodes>
            0 -1 143 6.8326445762068033e-04</internalNodes>
          <leafValues>
            3.1887188553810120e-01 -6.4515668153762817e-01</leafValues></_></weakClassifiers></_>
    <!-- stage 3 -->
    <_>
      <maxWeakCount>7</maxWeakCount>
      <stageThreshold>-1.6009078025817871e+00</stageThreshold>
      <weakClassifiers>
        <_>
          <internalNodes>
            0 -1 136 1.6104504466056824e-02</internalNodes>
          <leafValues>
            -8.4600937366485596e-01 3.0612245202064514e-01</leafValues></_>
        <_>
          <internalNodes>
            0 -1 94 -1.6290023922920227e-02</internalNodes>
          <leafValues>
            4.4884267449378967e-01 -6.0935896635055542e-01</leafValues></_>
        <_>
          <internalNodes>
            0 -1 69 1.5287282876670361e-03</internalNodes>
          <leafValues>
            -3.3668962121009827e-01 5.7701534032821655e-01</leafValues></_>
        <_>
          <internalNodes>
            0 -1 92 -2.4620983749628067e-03</internalNodes>
          <leafValues>
            4.5562055706977844e-01 -3.9488735795021057e-01</leafValues></_>
        <_>
          <internalNodes>
            0 -1 29 -2.7469997294247150e-03</internalNodes>
          <leafValues>
            5.0360649824142456e-01 -3.5786211490631104e-01</leafValues></_>
        <_>
          <internalNodes>
            0 -1 79 2.4713645689189434e-03</internalNodes>
          <leafValues>
            -3.9269450306892395e-01 4.6937942504882813e-01</leafValues></_>
        <_>
          <internalNodes>
            0 -1 89 1.5589495887979865e-03</internalNodes>
          <leafValues>
            -3.7538239359855652e-01 5.2979207038879395e-01</leafValues></_></weakClassifiers></_>
    <!-- stage 4 -->
    <_>
      <maxWeakCount>7</maxWeakCount>
      <stageThreshold>-1.5711416006088257e+00</stageThreshold>
      <weakClassifiers>
        <_>
          <internalNodes>
            0 -1 34 -3.9142531156539917e-01</internalNodes>
          <leafValues>
            7.4626863002777100e-02 -8.5100287199020386e-01</leafValues></_>
        <_>
          <internalNodes>
            0 -1 14 -3.2363444566726685e-02</internalNodes>
          <leafValues>
            4.0375682711601257e-01 -5.7729369401931763e-01</leafValues></_>
        <_>
          <internalNodes>
            0 -1 118 5.5460356175899506e-02</internalNodes>
          <leafValues>
            -3.4377992153167725e-01 5.4359239339828491e-01</leafValues></_>
        <_>
          <internalNodes>
            0 -1 15 -3.3207037631655112e-05</internalNodes>
          <leafValues>
            -6.5680825710296631e-01 2.4649591743946075e-01</leafValues></_>
        <_>
          <internalNodes>
            0 -1 17 -2.2319170966511592e-05</internalNodes>
          <leafValues>
            -7.0433676242828369e-01 2.2317291796207428e-01</leafValues></_>
        <_>
          <internalNodes>
            0 -1 19 -1.9931464339606464e-04</internalNodes>
          <leafValues>
            -7.8502058982849121e-01 2.0981587469577789e-01</leafValues></_>
        <_>
          <internalNodes>
            0 -1 72 5.7704425416886806e-03</internalNodes>
          <leafValues>
            -3.5779809951782227e-01 5.1628673076629639e-01</leafValues></_></weakClassifiers></_>
    <!-- stage 5 -->
    <_>
      <maxWeakCount>6</maxWeakCount>
      <stageThreshold>-1.5686783790588379e+00</stageThreshold>
      <weakClassifiers>
        <_>
          <internalNodes>
            0 -1 8 -9.8873667418956757e-02</internalNodes>
          <leafValues>
            2.8000000119209290e-01 -8.4586465358734131e-01</leafValues></_>
        <_>
          <internalNodes>
            0 -1 78 -5.7973293587565422e-03</internalNodes>
          <leafValues>
            3.7394005060195923e-01 -5.6006515026092529e-01</leafValues></_>
        <_>
          <internalNodes>
            0 -1 9 4.4748437358066440e-04</internalNodes>
          <leafValues>
            2.2790201008319855e-01 -5.6173646450042725e-01</leafValues></_>
        <_>
          <internalNodes>
            0 -1 6 -6.6543121647555381e-05</internalNodes>
          <leafValues>
            -6.0792028903961182e-01 2.4899068474769592e-01</leafValues></_>
        <_>
          <internalNodes>
            0 -1 98 1.1795723438262939e-01</internalNodes>
          <leafValues>
            -3.1303158402442932e-01 4.7216379642486572e-01</leafValues></_>
        <_>
          <internalNodes>
            0 -1 75 8.1280898302793503e-04</internalNodes>
          <leafValues>
            -2.5489410758018494e-01 6.2802881002426147e-01</leafValues></_></weakClassifiers></_>
    <!-- stage 6 -->
    <_>
      <maxWeakCount>6</maxWeakCount>
      <stageThreshold>-1.9262846708297729e+00</stageThreshold>
      <weakClassifiers>
        <_>
          <internalNodes>
            0 -1 134 2.0834324881434441e-02</internalNodes>
          <leafValues>
            -8.4571427106857300e-01 3.1250000000000000e-02</leafValues></_>
        <_>
          <internalNodes>
            0 -1 19 6.7211840359959751e-05</internalNodes>
          <leafValues>
            3.0823875218629837e-02 -7.5789999961853027e-01</leafValues></_>
        <_>
          <internalNodes>
            0 -1 24 2.5108861154876649e-04</internalNodes>
          <leafValues>
            1.3461321592330933e-01 -8.1350946426391602e-01</leafValues></_>
        <_>
          <internalNodes>
            0 -1 49 1.5260819345712662e-02</internalNodes>
          <leafValues>
            -2.9806497693061829e-01 5.3496259450912476e-01</leafValues></_>
        <_>
          <internalNodes>
            0 -1 26 3.3554161200299859e-04</internalNodes>
          <leafValues>
            2.1278552711009979e-01 -7.9261326789855957e-01</leafValues></_>
        <_>
          <internalNodes>
            0 -1 18 -3.6915189120918512e-03</internalNodes>
          <leafValues>
            4.1626602411270142e-01 -3.7200418114662170e-01</leafValues></_></weakClassifiers></_>
    <!-- stage 7 -->
    <_>
      <maxWeakCount>8</maxWeakCount>
      <stageThreshold>-1.6835650205612183e+00</stageThreshold>
      <weakClassifiers>
        <_>
          <internalNodes>
            0 -1 11 -7.2122156620025635e-02</internalNodes>
          <leafValues>
            -8.1967212259769440e-02 -8.3665716648101807e-01</leafValues></_>
        <_>
          <internalNodes>
            0 -1 44 8.7720304727554321e-02</internalNodes>
          <leafValues>
            -4.6445992588996887e-01 4.1833549737930298e-01</leafValues></_>
        <_>
          <internalNodes>
            0 -1 38 -3.6196224391460419e-04</internalNodes>
          <leafValues>
            -5.4471927881240845e-01 2.2481043636798859e-01</leafValues></_>
        <_>
          <internalNodes>
            0 -1 16 -6.4970510720741004e-05</internalNodes>
          <leafValues>
            -5.4774159193038940e-01 2.3183684051036835e-01</leafValues></_>
        <_>
          <internalNodes>
            0 -1 91 -3.0917680123820901e-04</internalNodes>
          <leafValues>
            4.5465931296348572e-01 -3.1617933511734009e-01</leafValues></_>
        <_>
          <internalNodes>
            0 -1 43 -5.9488108381628990e-03</internalNodes>
          <leafValues>
            4.6309661865234375e-01 -3.1792235374450684e-01</leafValues></_>
        <_>
          <internalNodes>
            0 -1 142 5.3917949117021635e-05</internalNodes>
          <leafValues>
            2.5777429342269897e-01 -6.6215014457702637e-01</leafValues></_>
        <_>
          <internalNodes>
            0 -1 110 -3.6151083186268806e-03</internalNodes>
          <leafValues>
            5.1943069696426392e-01 -3.1368196010589600e-01</leafValues></_></weakClassifiers></_>
    <!-- stage 8 -->
    <_>
      <maxWeakCount>8</maxWeakCount>
      <stageThreshold>-1.6155713796615601e+00</stageThreshold>
      <weakClassifiers>
        <_>
          <internalNodes>
            0 -1 23 -6.7185647785663605e-03</internalNodes>
          <leafValues>
            -3.4246575832366943e-01 -8.6363637447357178e-01</leafValues></_>
        <_>
          <internalNodes>
            0 -1 109 -3.7214154144749045e-04</internalNodes>
          <leafValues>
            4.9618408083915710e-02 -5.9534162282943726e-01</leafValues></_>
        <_>
          <internalNodes>
            0 -1 131 6.0832360759377480e-03</internalNodes>
          <leafValues>
            -2.3543712496757507e-01 5.5917739868164063e-01</leafValues></_>
        <_>
          <internalNodes>
            0 -1 32 1.4705111971125007e-04</internalNodes>
          <leafValues>
            2.1051827073097229e-01 -6.2638461589813232e-01</leafValues></_>
        <_>
          <internalNodes>
            0 -1 1 -1.1369776725769043e-01</internalNodes>
          <leafValues>
            4.5786988735198975e-01 -2.9676085710525513e-01</leafValues></_>
        <_>
          <internalNodes>
            0 -1 70 -1.2067609466612339e-02</internalNodes>
          <leafValues>
            5.7298040390014648e-01 -2.0313392579555511e-01</leafValues></_>
        <_>
          <internalNodes>
            0 -1 140 9.1836613137274981e-04</internalNodes>
          <leafValues>
            1.8462291359901428e-01 -7.1657741069793701e-01</leafValues></_>
        <_>
          <internalNodes>
            0 -1 54 9.7331253346055746e-04</internalNodes>
          <leafValues>
            -3.3757331967353821e-01 3.9714249968528748e-01</leafValues></_></weakClassifiers></_>
    <!-- stage 9 -->
    <_>
      <maxWeakCount>8</maxWeakCount>
      <stageThreshold>-1.6673872470855713e+00</stageThreshold>
      <weakClassifiers>
        <_>
          <internalNodes>
            0 -1 56 1.8280964344739914e-02</internalNodes>
          <leafValues>
            -8.4287101030349731e-01 -2.0481927692890167e-01</leafValues></_>
        <_>
          <internalNodes>
            0 -1 76 -1.6057893633842468e-02</internalNodes>
          <leafValues>
            3.8366112112998962e-01 -4.6604859828948975e-01</leafValues></_>
        <_>
          <internalNodes>
            0 -1 88 6.0054408386349678e-03</internalNodes>
          <leafValues>
            -2.4858331680297852e-01 4.8147085309028625e-01</leafValues></_>
        <_>
          <internalNodes>
            0 -1 12 -8.8103895541280508e-04</internalNodes>
          <leafValues>
            4.4133171439170837e-01 -2.8084039688110352e-01</leafValues></_>
        <_>
          <internalNodes>
            0 -1 3 -1.8787017324939370e-05</internalNodes>
          <leafValues>
            -6.2581312656402588e-01 2.0874832570552826e-01</leafValues></_>
        <_>
          <internalNodes>
            0 -1 130 -6.2723001974518411e-06</internalNodes>
          <leafValues>
            3.0549696087837219e-01 -3.6812731623649597e-01</leafValues></_>
        <_>
          <internalNodes>
            0 -1 122 -1.0866667144000530e-03</internalNodes>
          <leafValues>
            4.7676455974578857e-01 -2.6545369625091553e-01</leafValues></_>
        <_>
          <internalNodes>
            0 -1 144 -2.5760135031305254e-05</internalNodes>
          <leafValues>
            -6.2354409694671631e-01 1.9538860023021698e-01</leafValues></_></weakClassifiers></_>
    <!-- stage 10 -->
    <_>
      <maxWeakCount>8</maxWeakCount>
      <stageThreshold>-1.7181267738342285e+00</stageThreshold>
      <weakClassifiers>
        <_>
          <internalNodes>
            0 -1 40 -8.4374994039535522e-02</internalNodes>
          <leafValues>
            5.2631579339504242e-02 -8.2527881860733032e-01</leafValues></_>
        <_>
          <internalNodes>
            0 -1 107 7.1680133260088041e-06</internalNodes>
          <leafValues>
            -6.1097240447998047e-01 -3.7183722015470266e-03</leafValues></_>
        <_>
          <internalNodes>
            0 -1 31 -7.6164319580129813e-06</internalNodes>
          <leafValues>
            2.4389697611331940e-01 -4.1927170753479004e-01</leafValues></_>
        <_>
          <internalNodes>
            0 -1 137 7.6516869012266397e-04</internalNodes>
          <leafValues>
            -2.7581310272216797e-01 4.1094681620597839e-01</leafValues></_>
        <_>
          <internalNodes>
            0 -1 48 -8.2073593512177467e-03</internalNodes>
          <leafValues>
            -8.5861515998840332e-01 1.2706442177295685e-01</leafValues></_>
        <_>
          <internalNodes>
            0 -1 139 6.9950401666574180e-05</internalNodes>
          <leafValues>
            1.7004671692848206e-01 -6.2740743160247803e-01</leafValues></_>
        <_>
          <internalNodes>
            0 -1 42 4.9092681147158146e-03</internalNodes>
          <leafValues>
            2.0406292378902435e-01 -5.6318229436874390e-01</leafValues></_>
        <_>
          <internalNodes>
            0 -1 60 8.6313718929886818e-04</internalNodes>
          <leafValues>
            -3.7270802259445190e-01 3.1689089536666870e-01</leafValues></_></weakClassifiers></_>
    <!-- stage 11 -->
    <_>
      <maxWeakCount>7</maxWeakCount>
      <stageThreshold>-1.5439294576644897e+00</stageThreshold>
      <weakClassifiers>
        <_>
          <internalNodes>
            0 -1 73 -8.6215119808912277e-03</internalNodes>
          <leafValues>
            -4.0799999237060547e-01 -8.4428715705871582e-01</leafValues></_>
        <_>
          <internalNodes>
            0 -1 116 -5.4451178584713489e-05</internalNodes>
          <leafValues>
            -8.0960172414779663e-01 -1.3344344496726990e-01</leafValues></_>
        <_>
          <internalNodes>
            0 -1 22 -3.2848394766915590e-05</internalNodes>
          <leafValues>
            -6.3406825065612793e-01 1.2261523306369781e-01</leafValues></_>
        <_>
          <internalNodes>
            0 -1 138 2.2212728799786419e-04</internalNodes>
          <leafValues>
            1.3621976971626282e-01 -7.8587472438812256e-01</leafValues></_>
        <_>
          <internalNodes>
            0 -1 4 1.2519832700490952e-02</internalNodes>
          <leafValues>
            -4.2097452282905579e-01 2.6102298498153687e-01</leafValues></_>
        <_>
          <internalNodes>
            0 -1 145 2.0348878024378791e-05</internalNodes>
          <leafValues>
            1.6935876011848450e-01 -5.2506822347640991e-01</leafValues></_>
        <_>
          <internalNodes>
            0 -1 85 -1.3733931118622422e-03</internalNodes>
          <leafValues>
            3.6110591888427734e-01 -2.8020155429840088e-01</leafValues></_></weakClassifiers></_>
    <!-- stage 12 -->
    <_>
      <maxWeakCount>7</maxWeakCount>
      <stageThreshold>-1.6956912279129028e+00</stageThreshold>
      <weakClassifiers>
        <_>
          <internalNodes>
            0 -1 65 -1.6107380390167236e-02</internalNodes>
          <leafValues>
            8.0000001192092896e-01 -8.0978262424468994e-01</leafValues></_>
        <_>
          <internalNodes>
            0 -1 2 -4.0389765053987503e-02</internalNodes>
          <leafValues>
            7.5268276035785675e-02 -5.4111278057098389e-01</leafValues></_>
        <_>
          <internalNodes>
            0 -1 13 8.1988528836518526e-04</internalNodes>
          <leafValues>
            1.5332311391830444e-01 -6.4974504709243774e-01</leafValues></_>
        <_>
          <internalNodes>
            0 -1 68 -1.6310886712744832e-03</internalNodes>
          <leafValues>
            4.5484101772308350e-01 -2.4822145700454712e-01</leafValues></_>
        <_>
          <internalNodes>
            0 -1 144 2.9852988518541679e-05</internalNodes>
          <leafValues>
            2.7263483405113220e-01 -4.5617422461509705e-01</leafValues></_>
        <_>
          <internalNodes>
            0 -1 53 6.2524480745196342e-04</internalNodes>
          <leafValues>
            -2.7679809927940369e-01 3.8629493117332458e-01</leafValues></_>
        <_>
          <internalNodes>
            0 -1 35 -1.5469769015908241e-02</internalNodes>
          <leafValues>
            4.6782603859901428e-01 -2.4573427438735962e-01</leafValues></_></weakClassifiers></_>
    <!-- stage 13 -->
    <_>
      <maxWeakCount>9</maxWeakCount>
      <stageThreshold>-1.4212124347686768e+00</stageThreshold>
      <weakClassifiers>
        <_>
          <internalNodes>
            0 -1 30 -6.6012907773256302e-03</internalNodes>
          <leafValues>
            -1.4285714924335480e-01 -8.3444339036941528e-01</leafValues></_>
        <_>
          <internalNodes>
            0 -1 108 -1.1339557822793722e-03</internalNodes>
          <leafValues>
            3.1724032014608383e-03 -5.9031379222869873e-01</leafValues></_>
        <_>
          <internalNodes>
            0 -1 80 -1.2886348413303494e-03</internalNodes>
          <leafValues>
            3.9383691549301147e-01 -2.8701299428939819e-01</leafValues></_>
        <_>
          <internalNodes>
            0 -1 135 7.5687144999392331e-05</internalNodes>
          <leafValues>
            -2.5213885307312012e-01 3.6211627721786499e-01</leafValues></_>
        <_>
          <internalNodes>
            0 -1 13 -1.1544660083018243e-04</internalNodes>
          <leafValues>
            -3.0919745564460754e-01 3.5402616858482361e-01</leafValues></_>
        <_>
          <internalNodes>
            0 -1 36 1.3262906577438116e-03</internalNodes>
          <leafValues>
            -1.9707907736301422e-01 4.2755958437919617e-01</leafValues></_>
        <_>
          <internalNodes>
            0 -1 55 -7.1404283517040312e-05</internalNodes>
          <leafValues>
            -5.0203514099121094e-01 2.1119309961795807e-01</leafValues></_>
        <_>
          <internalNodes>
            0 -1 127 4.9274839693680406e-04</internalNodes>
          <leafValues>
            1.3491323590278625e-01 -6.5221011638641357e-01</leafValues></_>
        <_>
          <internalNodes>
            0 -1 46 -4.8471789341419935e-05</internalNodes>
          <leafValues>
            2.7273827791213989e-01 -3.4420725703239441e-01</leafValues></_></weakClassifiers></_>
    <!-- stage 14 -->
    <_>
      <maxWeakCount>10</maxWeakCount>
      <stageThreshold>-1.7284364700317383e+00</stageThreshold>
      <weakClassifiers>
        <_>
          <internalNodes>
            0 -1 117 -7.1234062314033508e-02</internalNodes>
          <leafValues>
            1. -8.0505412817001343e-01</leafValues></_>
        <_>
          <internalNodes>
            0 -1 115 -8.9341299608349800e-03</internalNodes>
          <leafValues>
            3.6392718553543091e-01 -4.0881177783012390e-01</leafValues></_>
        <_>
          <internalNodes>
            0 -1 39 -2.3765141668263823e-04</internalNodes>
          <leafValues>
            -6.1977601051330566e-01 1.4516660571098328e-01</leafValues></_>
        <_>
          <internalNodes>
            0 -1 126 1.3370477245189250e-04</internalNodes>
          <leafValues>
            -2.6487624645233154e-01 3.3586832880973816e-01</leafValues></_>
        <_>
          <internalNodes>
            0 -1 25 -4.5772932935506105e-05</internalNodes>
          <leafValues>
            3.0046701431274414e-01 -3.4558832645416260e-01</leafValues></_>
        <_>
          <internalNodes>
            0 -1 64 2.9468365013599396e-02</internalNodes>
          <leafValues>
            -1.5625037252902985e-01 7.7440750598907471e-01</leafValues></_>
        <_>
          <internalNodes>
            0 -1 101 3.4375577233731747e-03</internalNodes>
          <leafValues>
            -2.5395742058753967e-01 4.0160998702049255e-01</leafValues></_>
        <_>
          <internalNodes>
            0 -1 146 2.1819434550707228e-05</internalNodes>
          <leafValues>
            2.1350575983524323e-01 -5.0181323289871216e-01</leafValues></_>
        <_>
          <internalNodes>
            0 -1 66 -7.7969040721654892e-03</internalNodes>
          <leafValues>
            3.7219166755676270e-01 -2.7566859126091003e-01</leafValues></_>
        <_>
          <internalNodes>
            0 -1 45 -1.2004891410470009e-02</internalNodes>
          <leafValues>
            6.7503577470779419e-01 -1.7100207507610321e-01</leafValues></_></weakClassifiers></_>
    <!-- stage 15 -->
    <_>
      <maxWeakCount>10</maxWeakCount>
      <stageThreshold>-1.5365935564041138e+00</stageThreshold>
      <weakClassifiers>
        <_>
          <internalNodes>
            0 -1 50 1.6287658363580704e-02</internalNodes>
          <leafValues>
            -8.1634527444839478e-01 1.1999999731779099e-01</leafValues></_>
        <_>
          <internalNodes>
            0 -1 52 1.0388247668743134e-02</internalNodes>
          <leafValues>
            -4.4690728187561035e-01 1.7362295091152191e-01</leafValues></_>
        <_>
          <internalNodes>
            0 -1 123 2.0888727158308029e-04</internalNodes>
          <leafValues>
            7.8840598464012146e-02 -8.1971961259841919e-01</leafValues></_>
        <_>
          <internalNodes>
            0 -1 0 -9.4810951850377023e-05</internalNodes>
          <leafValues>
            3.9033716917037964e-01 -2.1122683584690094e-01</leafValues></_>
        <_>
          <internalNodes>
            0 -1 21 3.6433164495974779e-05</internalNodes>
          <leafValues>
            1.4138050377368927e-01 -6.3124334812164307e-01</leafValues></_>
        <_>
          <internalNodes>
            0 -1 96 2.6978789828717709e-03</internalNodes>
          <leafValues>
            -2.8705739974975586e-01 3.3435058593750000e-01</leafValues></_>
        <_>
          <internalNodes>
            0 -1 84 1.2526923092082143e-04</internalNodes>
          <leafValues>
            -2.2248879075050354e-01 4.3217745423316956e-01</leafValues></_>
        <_>
          <internalNodes>
            0 -1 146 -2.2525469830725342e-05</internalNodes>
          <leafValues>
            -4.1897818446159363e-01 2.4020418524742126e-01</leafValues></_>
        <_>
          <internalNodes>
            0 -1 97 2.4239876074716449e-04</internalNodes>
          <leafValues>
            -2.6541820168495178e-01 3.3391511440277100e-01</leafValues></_>
        <_>
          <internalNodes>
            0 -1 90 -6.4207546529360116e-05</internalNodes>
          <leafValues>
            3.1576263904571533e-01 -3.1048691272735596e-01</leafValues></_></weakClassifiers></_>
    <!-- stage 16 -->
    <_>
      <maxWeakCount>10</maxWeakCount>
      <stageThreshold>-1.6374868154525757e+00</stageThreshold>
      <weakClassifiers>
        <_>
          <internalNodes>
            0 -1 37 -2.1376446820795536e-03</internalNodes>
          <leafValues>
            2.8571428731083870e-02 -8.2205748558044434e-01</leafValues></_>
        <_>
          <internalNodes>
            0 -1 111 -1.2071859964635223e-04</internalNodes>
          <leafValues>
            1.0709450393915176e-01 -4.9463370442390442e-01</leafValues></_>
        <_>
          <internalNodes>
            0 -1 58 5.0589739112183452e-04</internalNodes>
          <leafValues>
            -3.2664653658866882e-01 2.8315547108650208e-01</leafValues></_>
        <_>
          <internalNodes>
            0 -1 129 -9.7189433290623128e-05</internalNodes>
          <leafValues>
            -5.0219738483428955e-01 1.6831350326538086e-01</leafValues></_>
        <_>
          <internalNodes>
            0 -1 102 -7.6438416726887226e-03</internalNodes>
          <leafValues>
            2.9557180404663086e-01 -3.0009531974792480e-01</leafValues></_>
        <_>
          <internalNodes>
            0 -1 81 8.6964783258736134e-04</internalNodes>
          <leafValues>
            -3.0315116047859192e-01 2.9894196987152100e-01</leafValues></_>
        <_>
          <internalNodes>
            0 -1 20 2.7223017241340131e-05</internalNodes>
          <leafValues>
            2.0997434854507446e-01 -4.0590015053749084e-01</leafValues></_>
        <_>
          <internalNodes>
            0 -1 33 -8.2727689296007156e-03</internalNodes>
          <leafValues>
            5.0986117124557495e-01 -1.9238919019699097e-01</leafValues></_>
        <_>
          <internalNodes>
            0 -1 83 -7.4162246892228723e-04</internalNodes>
          <leafValues>
            3.5466969013214111e-01 -2.9016402363777161e-01</leafValues></_>
        <_>
          <internalNodes>
            0 -1 119 -1.9853853154927492e-03</internalNodes>
          <leafValues>
            -7.8630137443542480e-01 1.1769556999206543e-01</leafValues></_></weakClassifiers></_>
    <!-- stage 17 -->
    <_>
      <maxWeakCount>8</maxWeakCount>
      <stageThreshold>-1.4375743865966797e+00</stageThreshold>
      <weakClassifiers>
        <_>
          <internalNodes>
            0 -1 120 -7.6599046587944031e-02</internalNodes>
          <leafValues>
            1. -8.0668473243713379e-01</leafValues></_>
        <_>
          <internalNodes>
            0 -1 132 -2.9322213958948851e-04</internalNodes>
          <leafValues>
            1.5281558036804199e-01 -4.5648720860481262e-01</leafValues></_>
        <_>
          <internalNodes>
            0 -1 125 7.9162954352796078e-04</internalNodes>
          <leafValues>
            8.9174464344978333e-02 -8.0227386951446533e-01</leafValues></_>
        <_>
          <internalNodes>
            0 -1 133 -4.9165406380780041e-05</internalNodes>
          <leafValues>
            3.3774164319038391e-01 -2.6654091477394104e-01</leafValues></_>
        <_>
          <internalNodes>
            0 -1 124 -5.4665943025611341e-05</internalNodes>
          <leafValues>
            -4.7959148883819580e-01 2.1192021667957306e-01</leafValues></_>
        <_>
          <internalNodes>
            0 -1 87 -7.2864815592765808e-03</internalNodes>
          <leafValues>
            4.3654274940490723e-01 -2.3561856150627136e-01</leafValues></_>
        <_>
          <internalNodes>
            0 -1 114 -3.4428824437782168e-04</internalNodes>
          <leafValues>
            4.2527225613594055e-01 -2.3232217133045197e-01</leafValues></_>
        <_>
          <internalNodes>
            0 -1 27 -6.8359239958226681e-04</internalNodes>
          <leafValues>
            4.1341549158096313e-01 -2.6308912038803101e-01</leafValues></_></weakClassifiers></_>
    <!-- stage 18 -->
    <_>
      <maxWeakCount>9</maxWeakCount>
      <stageThreshold>-1.3602854013442993e+00</stageThreshold>
      <weakClassifiers>
        <_>
          <internalNodes>
            0 -1 86 8.2428958266973495e-03</internalNodes>
          <leafValues>
            -8.0995476245880127e-01 1.</leafValues></_>
        <_>
          <internalNodes>
            0 -1 67 6.7230679094791412e-02</internalNodes>
          <leafValues>
            -4.4975808262825012e-01 1.6656801104545593e-01</leafValues></_>
        <_>
          <internalNodes>
            0 -1 103 -1.3887989334762096e-03</internalNodes>
          <leafValues>
            2.0945324003696442e-01 -4.0193903446197510e-01</leafValues></_>
        <_>
          <internalNodes>
            0 -1 106 -2.7564936317503452e-04</internalNodes>
          <leafValues>
            3.0916404724121094e-01 -3.0507716536521912e-01</leafValues></_>
        <_>
          <internalNodes>
            0 -1 5 -6.9096472543606069e-06</internalNodes>
          <leafValues>
            -5.0872927904129028e-01 1.8232068419456482e-01</leafValues></_>
        <_>
          <internalNodes>
            0 -1 47 -1.8731136151473038e-05</internalNodes>
          <leafValues>
            3.1143814325332642e-01 -3.1992477178573608e-01</leafValues></_>
        <_>
          <internalNodes>
            0 -1 100 2.6005003601312637e-03</internalNodes>
          <leafValues>
            1.4820279181003571e-01 -6.5323680639266968e-01</leafValues></_>
        <_>
          <internalNodes>
            0 -1 59 4.1727321222424507e-03</internalNodes>
          <leafValues>
            -2.3101012408733368e-01 4.2728844285011292e-01</leafValues></_>
        <_>
          <internalNodes>
            0 -1 112 2.7416343800723553e-04</internalNodes>
          <leafValues>
            -2.3965373635292053e-01 4.0266117453575134e-01</leafValues></_></weakClassifiers></_>
    <!-- stage 19 -->
    <_>
      <maxWeakCount>9</maxWeakCount>
      <stageThreshold>-1.6466982364654541e+00</stageThreshold>
      <weakClassifiers>
        <_>
          <internalNodes>
            0 -1 82 2.5854200124740601e-02</internalNodes>
          <leafValues>
            -8.1323665380477905e-01 1.</leafValues></_>
        <_>
          <internalNodes>
            0 -1 63 4.1735987178981304e-03</internalNodes>
          <leafValues>
            -4.6616315841674805e-01 2.5796815752983093e-01</leafValues></_>
        <_>
          <internalNodes>
            0 -1 51 5.4087720811367035e-02</internalNodes>
          <leafValues>
            1.0770401358604431e-01 -8.2510328292846680e-01</leafValues></_>
        <_>
          <internalNodes>
            0 -1 71 -8.5850777104496956e-03</internalNodes>
          <leafValues>
            7.2190517187118530e-01 -1.4105424284934998e-01</leafValues></_>
        <_>
          <internalNodes>
            0 -1 121 1.9758874259423465e-05</internalNodes>
          <leafValues>
            -3.6018645763397217e-01 3.2832527160644531e-01</leafValues></_>
        <_>
          <internalNodes>
            0 -1 95 5.1454000640660524e-04</internalNodes>
          <leafValues>
            -2.8055551648139954e-01 4.1566714644432068e-01</leafValues></_>
        <_>
          <internalNodes>
            0 -1 41 -2.7164760977029800e-03</internalNodes>
          <leafValues>
            4.7649756073951721e-01 -2.6561954617500305e-01</leafValues></_>
        <_>
          <internalNodes>
            0 -1 113 2.0235239062458277e-03</internalNodes>
          <leafValues>
            1.5190963447093964e-01 -7.8159552812576294e-01</leafValues></_>
        <_>
          <internalNodes>
            0 -1 62 -1.5806646551936865e-03</internalNodes>
          <leafValues>
            4.6802377700805664e-01 -2.6800805330276489e-01</leafValues></_></weakClassifiers></_></stages>
  <features>
    <_>
      <rects>
        <_>
          0 0 2 1 -1.</_>
        <_>
          1 0 1 1 2.</_></rects>
      <tilted>0</tilted></_>
    <_>
      <rects>
        <_>
          0 0 16 25 -1.</_>
        <_>
          8 0 8 25 2.</_></rects>
      <tilted>0</tilted></_>
    <_>
      <rects>
        <_>
          0 0 31 9 -1.</_>
        <_>
          0 3 31 3 3.</_></rects>
      <tilted>0</tilted></_>
    <_>
      <rects>
        <_>
          0 1 1 2 -1.</_>
        <_>
          0 2 1 1 2.</_></rects>
      <tilted>0</tilted></_>
    <_>
      <rects>
        <_>
          0 1 20 12 -1.</_>
        <_>
          0 1 10 6 2.</_>
        <_>
          10 7 10 6 2.</_></rects>
      <tilted>0</tilted></_>
    <_>
      <rects>
        <_>
          0 2 1 4 -1.</_>
        <_>
          0 4 1 2 2.</_></rects>
      <tilted>0</tilted></_>
    <_>
      <rects>
        <_>
          0 2 1 15 -1.</_>
        <_>
          0 7 1 5 3.</_></rects>
      <tilted>0</tilted></_>
    <_>
      <rects>
        <_>
          0 2 10 26 -1.</_>
        <_>
          5 2 5 26 2.</_></rects>
      <tilted>0</tilted></_>
    <_>
      <rects>
        <_>
          0 2 30 3 -1.</_>
        <_>
          10 2 10 3 3.</_></rects>
      <tilted>0</tilted></_>
    <_>
      <rects>
        <_>
          0 3 1 15 -1.</_>
        <_>
          0 8 1 5 3.</_></rects>
      <tilted>0</tilted></_>
    <_>
      <rects>
        <_>
          0 3 2 28 -1.</_>
        <_>
          1 3 1 28 2.</_></rects>
      <tilted>0</tilted></_>
    <_>
      <rects>
        <_>
          0 3 30 2 -1.</_>
        <_>
          10 3 10 2 3.</_></rects>
      <tilted>0</tilted></_>
    <_>
      <rects>
        <_>
          0 4 2 5 -1.</_>
        <_>
          1 4 1 5 2.</_></rects>
      <tilted>0</tilted></_>
    <_>
      <rects>
        <_>
          0 5 1 24 -1.</_>
        <_>
          0 17 1 12 2.</_></rects>
      <tilted>0</tilted></_>
    <_>
      <rects>
        <_>
          0 5 6 19 -1.</_>
        <_>
          3 5 3 19 2.</_></rects>
      <tilted>0</tilted></_>
    <_>
      <rects>
        <_>
          0 6 1 9 -1.</_>
        <_>
          0 9 1 3 3.</_></rects>
      <tilted>0</tilted></_>
    <_>
      <rects>
        <_>
          0 8 1 6 -1.</_>
        <_>
          0 11 1 3 2.</_></rects>
      <tilted>0</tilted></_>
    <_>
      <rects>
        <_>
          0 11 1 3 -1.</_>
        <_>
          0 12 1 1 3.</_></rects>
      <tilted>0</tilted></_>
    <_>
      <rects>
        <_>
          0 12 18 4 -1.</_>
        <_>
          0 12 9 2 2.</_>
        <_>
          9 14 9 2 2.</_></rects>
      <tilted>0</tilted></_>
    <_>
      <rects>
        <_>
          0 13 1 6 -1.</_>
        <_>
          0 15 1 2 3.</_></rects>
      <tilted>0</tilted></_>
    <_>
      <rects>
        <_>
          0 14 1 6 -1.</_>
        <_>
          0 16 1 2 3.</_></rects>
      <tilted>0</tilted></_>
    <_>
      <rects>
        <_>
          0 17 1 2 -1.</_>
        <_>
          0 18 1 1 2.</_></rects>
      <tilted>0</tilted></_>
    <_>
      <rects>
        <_>
          0 17 1 3 -1.</_>
        <_>
          0 18 1 1 3.</_></rects>
      <tilted>0</tilted></_>
    <_>
      <rects>
        <_>
          0 21 2 11 -1.</_>
        <_>
          1 21 1 11 2.</_></rects>
      <tilted>0</tilted></_>
    <_>
      <rects>
        <_>
          0 24 1 6 -1.</_>
        <_>
          0 26 1 2 3.</_></rects>
      <tilted>0</tilted></_>
    <_>
      <rects>
        <_>
          0 24 2 3 -1.</_>
        <_>
          1 24 1 3 2.</_></rects>
      <tilted>0</tilted></_>
    <_>
      <rects>
        <_>
          0 26 1 4 -1.</_>
        <_>
          0 28 1 2 2.</_></rects>
      <tilted>0</tilted></_>
    <_>
      <rects>
        <_>
          0 26 6 1 -1.</_>
        <_>
          2 26 2 1 3.</_></rects>
      <tilted>0</tilted></_>
    <_>
      <rects>
        <_>
          0 27 2 3 -1.</_>
        <_>
          1 27 1 3 2.</_></rects>
      <tilted>0</tilted></_>
    <_>
      <rects>
        <_>
          0 27 6 4 -1.</_>
        <_>
          2 27 2 4 3.</_></rects>
      <tilted>0</tilted></_>
    <_>
      <rects>
        <_>
          0 28 2 4 -1.</_>
        <_>
          1 28 1 4 2.</_></rects>
      <tilted>0</tilted></_>
    <_>
      <rects>
        <_>
          0 29 7 2 -1.</_>
        <_>
          0 30 7 1 2.</_></rects>
      <tilted>0</tilted></_>
    <_>
      <rects>
        <_>
          1 0 6 1 -1.</_>
        <_>
          3 0 2 1 3.</_></rects>
      <tilted>0</tilted></_>
    <_>
      <rects>
        <_>
          1 0 17 2 -1.</_>
        <_>
          1 1 17 1 2.</_></rects>
      <tilted>0</tilted></_>
    <_>
      <rects>
        <_>
          1 2 30 22 -1.</_>
        <_>
          11 2 10 22 3.</_></rects>
      <tilted>0</tilted></_>
    <_>
      <rects>
        <_>
          1 9 15 3 -1.</_>
        <_>
          6 9 5 3 3.</_></rects>
      <tilted>0</tilted></_>
    <_>
      <rects>
        <_>
          1 14 17 3 -1.</_>
        <_>
          1 15 17 1 3.</_></rects>
      <tilted>0</tilted></_>
    <_>
      <rects>
        <_>
          1 27 3 1 -1.</_>
        <_>
          2 27 1 1 3.</_></rects>
      <tilted>0</tilted></_>
    <_>
      <rects>
        <_>
          2 0 2 16 -1.</_>
        <_>
          3 0 1 16 2.</_></rects>
      <tilted>0</tilted></_>
    <_>
      <rects>
        <_>
          2 0 6 1 -1.</_>
        <_>
          4 0 2 1 3.</_></rects>
      <tilted>0</tilted></_>
    <_>
      <rects>
        <_>
          2 3 30 2 -1.</_>
        <_>
          12 3 10 2 3.</_></rects>
      <tilted>0</tilted></_>
    <_>
      <rects>
        <_>
          2 24 7 6 -1.</_>
        <_>
          2 27 7 3 2.</_></rects>
      <tilted>0</tilted></_>
    <_>
      <rects>
        <_>
          4 0 26 1 -1.</_>
        <_>
          17 0 13 1 2.</_></rects>
      <tilted>0</tilted></_>
    <_>
      <rects>
        <_>
          4 0 16 2 -1.</_>
        <_>
          4 1 16 1 2.</_></rects>
      <tilted>0</tilted></_>
    <_>
      <rects>
        <_>
          4 7 24 7 -1.</_>
        <_>
          12 7 8 7 3.</_></rects>
      <tilted>0</tilted></_>
    <_>
      <rects>
        <_>
          4 17 8 12 -1.</_>
        <_>
          4 17 4 6 2.</_>
        <_>
          8 23 4 6 2.</_></rects>
      <tilted>0</tilted></_>
    <_>
      <rects>
        <_>
          4 20 2 4 -1.</_>
        <_>
          4 22 2 2 2.</_></rects>
      <tilted>0</tilted></_>
    <_>
      <rects>
        <_>
          4 25 6 2 -1.</_>
        <_>
          4 26 6 1 2.</_></rects>
      <tilted>0</tilted></_>
    <_>
      <rects>
        <_>
          5 0 24 1 -1.</_>
        <_>
          17 0 12 1 2.</_></rects>
      <tilted>0</tilted></_>
    <_>
      <rects>
        <_>
          5 1 14 8 -1.</_>
        <_>
          5 1 7 4 2.</_>
        <_>
          12 5 7 4 2.</_></rects>
      <tilted>0</tilted></_>
    <_>
      <rects>
        <_>
          5 6 1 20 -1.</_>
        <_>
          5 16 1 10 2.</_></rects>
      <tilted>0</tilted></_>
    <_>
      <rects>
        <_>
          5 8 26 14 -1.</_>
        <_>
          5 8 13 7 2.</_>
        <_>
          18 15 13 7 2.</_></rects>
      <tilted>0</tilted></_>
    <_>
      <rects>
        <_>
          5 11 6 18 -1.</_>
        <_>
          5 11 3 9 2.</_>
        <_>
          8 20 3 9 2.</_></rects>
      <tilted>0</tilted></_>
    <_>
      <rects>
        <_>
          5 11 10 2 -1.</_>
        <_>
          5 11 5 1 2.</_>
        <_>
          10 12 5 1 2.</_></rects>
      <tilted>0</tilted></_>
    <_>
      <rects>
        <_>
          5 15 15 3 -1.</_>
        <_>
          5 16 15 1 3.</_></rects>
      <tilted>0</tilted></_>
    <_>
      <rects>
        <_>
          6 0 6 1 -1.</_>
        <_>
          8 0 2 1 3.</_></rects>
      <tilted>0</tilted></_>
    <_>
      <rects>
        <_>
          6 1 6 12 -1.</_>
        <_>
          6 1 3 6 2.</_>
        <_>
          9 7 3 6 2.</_></rects>
      <tilted>0</tilted></_>
    <_>
      <rects>
        <_>
          6 19 6 7 -1.</_>
        <_>
          9 19 3 7 2.</_></rects>
      <tilted>0</tilted></_>
    <_>
      <rects>
        <_>
          6 20 13 3 -1.</_>
        <_>
          6 21 13 1 3.</_></rects>
      <tilted>0</tilted></_>
    <_>
      <rects>
        <_>
          6 24 6 8 -1.</_>
        <_>
          6 28 6 4 2.</_></rects>
      <tilted>0</tilted></_>
    <_>
      <rects>
        <_>
          7 7 6 6 -1.</_>
        <_>
          7 10 6 3 2.</_></rects>
      <tilted>0</tilted></_>
    <_>
      <rects>
        <_>
          8 0 12 2 -1.</_>
        <_>
          8 1 12 1 2.</_></rects>
      <tilted>0</tilted></_>
    <_>
      <rects>
        <_>
          8 6 2 18 -1.</_>
        <_>
          8 6 1 9 2.</_>
        <_>
          9 15 1 9 2.</_></rects>
      <tilted>0</tilted></_>
    <_>
      <rects>
        <_>
          8 21 4 11 -1.</_>
        <_>
          10 21 2 11 2.</_></rects>
      <tilted>0</tilted></_>
    <_>
      <rects>
        <_>
          9 8 6 20 -1.</_>
        <_>
          9 8 3 10 2.</_>
        <_>
          12 18 3 10 2.</_></rects>
      <tilted>0</tilted></_>
    <_>
      <rects>
        <_>
          9 13 15 1 -1.</_>
        <_>
          14 13 5 1 3.</_></rects>
      <tilted>0</tilted></_>
    <_>
      <rects>
        <_>
          9 14 10 16 -1.</_>
        <_>
          9 14 5 8 2.</_>
        <_>
          14 22 5 8 2.</_></rects>
      <tilted>0</tilted></_>
    <_>
      <rects>
        <_>
          10 4 22 5 -1.</_>
        <_>
          21 4 11 5 2.</_></rects>
      <tilted>0</tilted></_>
    <_>
      <rects>
        <_>
          10 5 6 4 -1.</_>
        <_>
          10 5 3 2 2.</_>
        <_>
          13 7 3 2 2.</_></rects>
      <tilted>0</tilted></_>
    <_>
      <rects>
        <_>
          10 16 2 12 -1.</_>
        <_>
          10 16 1 6 2.</_>
        <_>
          11 22 1 6 2.</_></rects>
      <tilted>0</tilted></_>
    <_>
      <rects>
        <_>
          10 22 9 9 -1.</_>
        <_>
          10 25 9 3 3.</_></rects>
      <tilted>0</tilted></_>
    <_>
      <rects>
        <_>
          10 25 22 4 -1.</_>
        <_>
          10 25 11 2 2.</_>
        <_>
          21 27 11 2 2.</_></rects>
      <tilted>0</tilted></_>
    <_>
      <rects>
        <_>
          11 6 11 6 -1.</_>
        <_>
          11 8 11 2 3.</_></rects>
      <tilted>0</tilted></_>
    <_>
      <rects>
        <_>
          11 10 6 8 -1.</_>
        <_>
          11 10 3 4 2.</_>
        <_>
          14 14 3 4 2.</_></rects>
      <tilted>0</tilted></_>
    <_>
      <rects>
        <_>
          11 15 6 14 -1.</_>
        <_>
          11 15 3 7 2.</_>
        <_>
          14 22 3 7 2.</_></rects>
      <tilted>0</tilted></_>
    <_>
      <rects>
        <_>
          11 19 2 4 -1.</_>
        <_>
          11 19 1 2 2.</_>
        <_>
          12 21 1 2 2.</_></rects>
      <tilted>0</tilted></_>
    <_>
      <rects>
        <_>
          12 0 2 12 -1.</_>
        <_>
          12 4 2 4 3.</_></rects>
      <tilted>0</tilted></_>
    <_>
      <rects>
        <_>
          12 0 10 4 -1.</_>
        <_>
          12 2 10 2 2.</_></rects>
      <tilted>0</tilted></_>
    <_>
      <rects>
        <_>
          12 0 11 2 -1.</_>
        <_>
          12 1 11 1 2.</_></rects>
      <tilted>0</tilted></_>
    <_>
      <rects>
        <_>
          12 9 8 6 -1.</_>
        <_>
          12 11 8 2 3.</_></rects>
      <tilted>0</tilted></_>
    <_>
      <rects>
        <_>
          12 12 4 4 -1.</_>
        <_>
          12 12 2 2 2.</_>
        <_>
          14 14 2 2 2.</_></rects>
      <tilted>0</tilted></_>
    <_>
      <rects>
        <_>
          12 15 18 6 -1.</_>
        <_>
          12 17 18 2 3.</_></rects>
      <tilted>0</tilted></_>
    <_>
      <rects>
        <_>
          13 0 5 9 -1.</_>
        <_>
          13 3 5 3 3.</_></rects>
      <tilted>0</tilted></_>
    <_>
      <rects>
        <_>
          13 2 3 4 -1.</_>
        <_>
          13 4 3 2 2.</_></rects>
      <tilted>0</tilted></_>
    <_>
      <rects>
        <_>
          13 12 2 2 -1.</_>
        <_>
          13 12 1 1 2.</_>
        <_>
          14 13 1 1 2.</_></rects>
      <tilted>0</tilted></_>
    <_>
      <rects>
        <_>
          13 17 8 1 -1.</_>
        <_>
          17 17 4 1 2.</_></rects>
      <tilted>0</tilted></_>
    <_>
      <rects>
        <_>
          14 1 2 4 -1.</_>
        <_>
          14 3 2 2 2.</_></rects>
      <tilted>0</tilted></_>
    <_>
      <rects>
        <_>
          14 2 12 4 -1.</_>
        <_>
          14 2 6 2 2.</_>
        <_>
          20 4 6 2 2.</_></rects>
      <tilted>0</tilted></_>
    <_>
      <rects>
        <_>
          14 3 6 6 -1.</_>
        <_>
          14 5 6 2 3.</_></rects>
      <tilted>0</tilted></_>
    <_>
      <rects>
        <_>
          14 7 6 4 -1.</_>
        <_>
          16 7 2 4 3.</_></rects>
      <tilted>0</tilted></_>
    <_>
      <rects>
        <_>
          14 12 2 4 -1.</_>
        <_>
          14 12 1 2 2.</_>
        <_>
          15 14 1 2 2.</_></rects>
      <tilted>0</tilted></_>
    <_>
      <rects>
        <_>
          14 14 2 6 -1.</_>
        <_>
          14 14 1 3 2.</_>
        <_>
          15 17 1 3 2.</_></rects>
      <tilted>0</tilted></_>
    <_>
      <rects>
        <_>
          14 16 6 6 -1.</_>
        <_>
          14 19 6 3 2.</_></rects>
      <tilted>0</tilted></_>
    <_>
      <rects>
        <_>
          15 2 4 12 -1.</_>
        <_>
          15 8 4 6 2.</_></rects>
      <tilted>0</tilted></_>
    <_>
      <rects>
        <_>
          15 2 12 8 -1.</_>
        <_>
          15 2 6 4 2.</_>
        <_>
          21 6 6 4 2.</_></rects>
      <tilted>0</tilted></_>
    <_>
      <rects>
        <_>
          15 8 3 3 -1.</_>
        <_>
          15 9 3 1 3.</_></rects>
      <tilted>0</tilted></_>
    <_>
      <rects>
        <_>
          15 8 4 6 -1.</_>
        <_>
          15 10 4 2 3.</_></rects>
      <tilted>0</tilted></_>
    <_>
      <rects>
        <_>
          15 15 3 1 -1.</_>
        <_>
          16 15 1 1 3.</_></rects>
      <tilted>0</tilted></_>
    <_>
      <rects>
        <_>
          16 0 16 28 -1.</_>
        <_>
          24 0 8 28 2.</_></rects>
      <tilted>0</tilted></_>
    <_>
      <rects>
        <_>
          16 1 8 12 -1.</_>
        <_>
          16 1 4 6 2.</_>
        <_>
          20 7 4 6 2.</_></rects>
      <tilted>0</tilted></_>
    <_>
      <rects>
        <_>
          16 2 3 10 -1.</_>
        <_>
          17 2 1 10 3.</_></rects>
      <tilted>0</tilted></_>
    <_>
      <rects>
        <_>
          16 5 6 6 -1.</_>
        <_>
          16 7 6 2 3.</_></rects>
      <tilted>0</tilted></_>
    <_>
      <rects>
        <_>
          17 0 6 14 -1.</_>
        <_>
          17 0 3 7 2.</_>
        <_>
          20 7 3 7 2.</_></rects>
      <tilted>0</tilted></_>
    <_>
      <rects>
        <_>
          17 4 4 12 -1.</_>
        <_>
          19 4 2 12 2.</_></rects>
      <tilted>0</tilted></_>
    <_>
      <rects>
        <_>
          18 0 2 6 -1.</_>
        <_>
          18 3 2 3 2.</_></rects>
      <tilted>0</tilted></_>
    <_>
      <rects>
        <_>
          18 3 14 2 -1.</_>
        <_>
          25 3 7 2 2.</_></rects>
      <tilted>0</tilted></_>
    <_>
      <rects>
        <_>
          18 22 8 2 -1.</_>
        <_>
          18 23 8 1 2.</_></rects>
      <tilted>0</tilted></_>
    <_>
      <rects>
        <_>
          18 30 1 2 -1.</_>
        <_>
          18 31 1 1 2.</_></rects>
      <tilted>0</tilted></_>
    <_>
      <rects>
        <_>
          19 0 1 6 -1.</_>
        <_>
          19 3 1 3 2.</_></rects>
      <tilted>0</tilted></_>
    <_>
      <rects>
        <_>
          19 7 2 4 -1.</_>
        <_>
          20 7 1 4 2.</_></rects>
      <tilted>0</tilted></_>
    <_>
      <rects>
        <_>
          19 18 6 8 -1.</_>
        <_>
          19 18 3 4 2.</_>
        <_>
          22 22 3 4 2.</_></rects>
      <tilted>0</tilted></_>
    <_>
      <rects>
        <_>
          19 22 2 2 -1.</_>
        <_>
          19 22 1 1 2.</_>
        <_>
          20 23 1 1 2.</_></rects>
      <tilted>0</tilted></_>
    <_>
      <rects>
        <_>
          20 19 2 4 -1.</_>
        <_>
          20 19 1 2 2.</_>
        <_>
          21 21 1 2 2.</_></rects>
      <tilted>0</tilted></_>
    <_>
      <rects>
        <_>
          20 20 9 3 -1.</_>
        <_>
          20 21 9 1 3.</_></rects>
      <tilted>0</tilted></_>
    <_>
      <rects>
        <_>
          20 30 6 2 -1.</_>
        <_>
          20 30 3 1 2.</_>
        <_>
          23 31 3 1 2.</_></rects>
      <tilted>0</tilted></_>
    <_>
      <rects>
        <_>
          21 23 8 6 -1.</_>
        <_>
          21 23 4 3 2.</_>
        <_>
          25 26 4 3 2.</_></rects>
      <tilted>0</tilted></_>
    <_>
      <rects>
        <_>
          22 0 3 1 -1.</_>
        <_>
          23 0 1 1 3.</_></rects>
      <tilted>0</tilted></_>
    <_>
      <rects>
        <_>
          22 3 8 20 -1.</_>
        <_>
          22 3 4 10 2.</_>
        <_>
          26 13 4 10 2.</_></rects>
      <tilted>0</tilted></_>
    <_>
      <rects>
        <_>
          22 6 10 26 -1.</_>
        <_>
          27 6 5 26 2.</_></rects>
      <tilted>0</tilted></_>
    <_>
      <rects>
        <_>
          22 7 9 3 -1.</_>
        <_>
          22 8 9 1 3.</_></rects>
      <tilted>0</tilted></_>
    <_>
      <rects>
        <_>
          22 15 5 16 -1.</_>
        <_>
          22 23 5 8 2.</_></rects>
      <tilted>0</tilted></_>
    <_>
      <rects>
        <_>
          23 5 3 8 -1.</_>
        <_>
          24 5 1 8 3.</_></rects>
      <tilted>0</tilted></_>
    <_>
      <rects>
        <_>
          23 13 2 14 -1.</_>
        <_>
          23 13 1 7 2.</_>
        <_>
          24 20 1 7 2.</_></rects>
      <tilted>0</tilted></_>
    <_>
      <rects>
        <_>
          24 0 3 1 -1.</_>
        <_>
          25 0 1 1 3.</_></rects>
      <tilted>0</tilted></_>
    <_>
      <rects>
        <_>
          24 2 6 1 -1.</_>
        <_>
          26 2 2 1 3.</_></rects>
      <tilted>0</tilted></_>
    <_>
      <rects>
        <_>
          25 0 6 1 -1.</_>
        <_>
          27 0 2 1 3.</_></rects>
      <tilted>0</tilted></_>
    <_>
      <rects>
        <_>
          26 1 6 4 -1.</_>
        <_>
          26 3 6 2 2.</_></rects>
      <tilted>0</tilted></_>
    <_>
      <rects>
        <_>
          26 24 1 6 -1.</_>
        <_>
          26 26 1 2 3.</_></rects>
      <tilted>0</tilted></_>
    <_>
      <rects>
        <_>
          27 0 2 1 -1.</_>
        <_>
          28 0 1 1 2.</_></rects>
      <tilted>0</tilted></_>
    <_>
      <rects>
        <_>
          27 21 3 2 -1.</_>
        <_>
          28 21 1 2 3.</_></rects>
      <tilted>0</tilted></_>
    <_>
      <rects>
        <_>
          27 28 3 2 -1.</_>
        <_>
          27 29 3 1 2.</_></rects>
      <tilted>0</tilted></_>
    <_>
      <rects>
        <_>
          28 28 4 4 -1.</_>
        <_>
          30 28 2 4 2.</_></rects>
      <tilted>0</tilted></_>
    <_>
      <rects>
        <_>
          29 0 2 3 -1.</_>
        <_>
          29 1 2 1 3.</_></rects>
      <tilted>0</tilted></_>
    <_>
      <rects>
        <_>
          29 4 3 2 -1.</_>
        <_>
          30 4 1 2 3.</_></rects>
      <tilted>0</tilted></_>
    <_>
      <rects>
        <_>
          30 5 2 27 -1.</_>
        <_>
          31 5 1 27 2.</_></rects>
      <tilted>0</tilted></_>
    <_>
      <rects>
        <_>
          30 8 2 1 -1.</_>
        <_>
          31 8 1 1 2.</_></rects>
      <tilted>0</tilted></_>
    <_>
      <rects>
        <_>
          30 11 2 21 -1.</_>
        <_>
          31 11 1 21 2.</_></rects>
      <tilted>0</tilted></_>
    <_>
      <rects>
        <_>
          30 25 2 5 -1.</_>
        <_>
          31 25 1 5 2.</_></rects>
      <tilted>0</tilted></_>
    <_>
      <rects>
        <_>
          30 29 2 2 -1.</_>
        <_>
          30 30 2 1 2.</_></rects>
      <tilted>0</tilted></_>
    <_>
      <rects>
        <_>
          31 3 1 3 -1.</_>
        <_>
          31 4 1 1 3.</_></rects>
      <tilted>0</tilted></_>
    <_>
      <rects>
        <_>
          31 4 1 9 -1.</_>
        <_>
          31 7 1 3 3.</_></rects>
      <tilted>0</tilted></_>
    <_>
      <rects>
        <_>
          31 8 1 9 -1.</_>
        <_>
          31 11 1 3 3.</_></rects>
      <tilted>0</tilted></_>
    <_>
      <rects>
        <_>
          31 9 1 3 -1.</_>
        <_>
          31 10 1 1 3.</_></rects>
      <tilted>0</tilted></_>
    <_>
      <rects>
        <_>
          31 9 1 12 -1.</_>
        <_>
          31 15 1 6 2.</_></rects>
      <tilted>0</tilted></_>
    <_>
      <rects>
        <_>
          31 15 1 3 -1.</_>
        <_>
          31 16 1 1 3.</_></rects>
      <tilted>0</tilted></_>
    <_>
      <rects>
        <_>
          31 27 1 2 -1.</_>
        <_>
          31 28 1 1 2.</_></rects>
      <tilted>0</tilted></_>
    <_>
      <rects>
        <_>
          31 28 1 3 -1.</_>
        <_>
          31 29 1 1 3.</_></rects>
      <tilted>0</tilted></_></features></cascade>
</opencv_storage>
